svm_type c_svc
kernel_type rbf
gamma 0.5
nr_class 8
total_sv 93
rho -0.337223 1.02465 0.0319173 -0.392063 -0.0519427 -0.642321 -0.331871 1.77288 0.555569 -0.0511593 0.351639 -0.105643 0.114503 0.0967003 -0.118111 -0.0337608 -0.471681 -0.268663 -0.546999 -0.0801936 -0.564579 -0.392499 0.438863 -0.170354 0.17389 -0.456917 -0.300753 0.183111
label 2 6 0 7 4 5 3 1
probA -2.79057 -1.25818 -3.23851 -2.39154 -3.70314 -3.24884 -3.19699 -2.17085 -3.33397 -3.9328 -4.1097 -3.66124 -3.52293 -3.15705 -3.10949 -3.44377 -2.9311 -2.86826 -3.40006 -3.60507 -3.29277 -3.16175 -3.76455 -3.18701 -3.25998 -3.40006 -3.31543 -2.85434
probB 0.409891 0.189046 -0.412493 -0.652812 -0.0396808 -1.03847 -0.568287 -0.736057 0.789142 -0.552387 -0.111654 -0.839291 -0.693285 0.393329 0.234881 0.216646 -0.111347 0.0308371 -0.291379 0.368711 -0.532685 -0.16848 0.344951 -0.414198 -0.270602 -0.650219 -0.320657 0.182787
nr_sv 21 15 12 20 6 11 5 3
SV
0 0 0.1512790320270785 0 0.07459159494331755 0.09186581857435683 0.107745564399832 1:-0.914416 2:-0.877342 3:-1 4:-1 5:-1 6:-1 7:-1 8:-1 9:-1 10:-1 11:-1 12:-1 13:-1 14:-1 15:0.641641 16:-1 17:-1 18:-1 19:-1 20:-1 21:-1 23:-1 24:-1 25:-1 26:-1 27:-1 
0 0 0 0 0.04126042510395456 0 0 1:-0.900354 2:-0.464463 3:-1 4:-1 5:-1 6:-1 7:-1 8:-1 9:-1 10:-1 11:-1 12:-1 13:-1 14:-1 15:0.592798 16:-0.989247 18:-1 19:-1 20:-1 21:-1 23:-1 24:-1 25:-1 26:-1 27:-1 30:0.25 
0 0 0 0 0 3.508738850787352 0 1:-0.919619 2:-0.334 3:-1 4:-0.9965 5:-1 6:-1 7:-1 8:-1 9:-1 10:-1 11:-1 12:-1 13:-1 14:-1 15:-0.357571 16:-1 17:-1 18:-1 19:-1 20:-1 21:-1 23:-1 24:-1 25:-1 26:-1 27:-1 30:-1 
0 0 0.4652371813755227 0.0455424561199006 0.4203958126816562 0.1339647001717827 0.3083451527786188 1:-0.855169 2:0.102703 3:-1 4:-1 5:-1 6:-1 7:-1 8:-1 9:-1 10:-1 11:-1 12:-1 13:-1 14:-1 15:0.929215 16:-1 17:-1 18:-1 19:-1 20:-1 21:-1 23:-1 24:-1 25:-1 26:-1 27:-1 30:-0.5 
0.6644611222665249 2.124813693723942 0.9967824260117918 0.6801950714258505 0.9230516828962678 0.3567310298844516 0.6412201384159415 1:-1 2:-0.928 3:-0.884615 4:-1 5:-1 6:-1 7:-1 8:-1 9:-1 10:-1 11:-0.688889 12:-1 13:-1 14:-1 15:-0.946464 16:-1 17:1 18:1 19:-1 20:-1 21:-1 23:-1 24:-1 25:-1 26:-0.688889 27:-1 30:-0.5 
0 10.93919435647875 0 32 0 0 0 1:-0.979905 2:-0.226 3:-1 4:-1 5:-1 6:-1 7:-1 8:-1 9:-1 10:-1 11:-1 12:-1 13:-1 14:-1 15:-0.732321 16:-1 17:-0.5 18:-1 19:-1 20:-1 21:-1 23:-1 24:-1 25:-1 26:-1 27:-1 30:-1 
0 2.189728235229647 0 0 0 0.06862088495046931 0 1:-0.688524 2:-0.748 3:-1 4:-1 5:-0.960784 6:-1 7:-1 8:-1 9:-1 10:-1 11:-1 12:-0.955056 13:-1 14:-1 15:-0.946464 16:-1 17:-1 18:-1 19:-1 20:-1 21:-1 23:-1 24:-1 25:-1 26:-1 27:-1 30:-1 
0 32 0 0 0 0 0 1:-0.698571 2:-0.748 3:-1 4:-1 5:-0.960784 6:-1 7:-1 8:-1 9:-1 10:-1 11:-1 12:-0.955056 13:-1 14:-1 15:-0.946464 16:-1 17:-1 18:-1 19:-1 20:-1 21:-1 23:-1 24:-1 25:-1 26:-1 27:-1 30:-1 
0 0 0 0 0 0.09764299753870807 0.1827950838941905 1:-0.952211 2:-0.871582 3:-1 4:-1 5:-1 6:-1 7:-1 8:-1 9:-1 10:-1 11:-1 12:-1 13:-1 14:-1 15:0.14583 16:-1 17:-1 18:-1 19:-1 20:-1 21:-1 23:-1 24:-1 25:-1 26:-1 27:-1 30:-1 
3.610352942184972 32 0 0 0 0 0 1:-0.698571 2:-0.748 3:-1 4:-1 5:-0.960784 6:-1 7:-1 8:-1 9:-1 10:-1 11:-1 12:-0.955056 13:-1 14:-1 15:-0.946464 16:-1 17:-1 18:-1 19:-1 20:-1 21:-1 23:-1 24:-1 25:-1 26:-1 27:-1 30:-1 
0 0 0 0 0 0.008478690178148798 0 1:-0.979905 2:-0.0640001 3:-1 4:-1 5:-1 6:-1 7:-1 8:-1 9:-1 10:-1 11:-1 12:-1 13:-1 14:-1 15:-0.357571 16:-1 18:-1 19:-1 20:-1 21:-1 23:-1 24:-1 25:-1 26:-1 27:-1 30:-1 
32 32 32 6.797903383827069 3.923771282818431 0.2807759470393981 1.567540480025795 1:-1 2:-1 3:-1 4:-1 5:-1 6:-1 7:-1 8:-1 9:-1 10:-1 11:-1 12:-1 13:-1 14:-1 15:-1 16:-1 17:-1 18:-1 19:-1 20:-1 21:-1 23:-1 24:-1 25:-1 26:-1 27:-1 30:-1 
0.6165554291016241 1.93659351423974 0.9594444047768635 0.4251586784296236 0.8738295273308864 0.3304946650379434 0.6176845995639159 1:-0.931063 2:-0.320755 3:-1 4:-1 5:-1 6:-1 7:-1 8:-1 9:-1 10:-1 11:-1 12:-1 13:-1 14:-1 15:0.83656 16:-0.978495 17:1 18:-1 19:-1 20:-1 21:-1 23:-1 24:-1 25:-1 26:-1 27:-1 30:1 
31.99516464100466 32 1.226784395597519 4.005952472119564 0 0 0 1:-0.698571 2:-0.748 3:-1 4:-1 5:-0.960784 6:-1 7:-1 8:-1 9:-1 10:-1 11:-1 12:-0.955056 13:-1 14:-1 15:-0.946464 16:-1 17:-1 18:-1 19:-1 20:-1 21:-1 23:-1 24:-1 25:-1 26:-1 27:-1 30:-1 
0 0 0 0 0 1.402086717072301 0 1:-0.899524 2:-0.82 3:-1 4:-1 5:-1 6:-1 7:-1 8:-1 9:-1 10:-1 11:-1 12:-1 13:-1 14:-1 15:-0.2505 16:-1 17:-1 18:-1 19:-1 20:-1 21:-1 23:-1 24:-1 25:-1 26:-1 27:-1 30:-1 
0 0 0 0 0 0.5387628455335615 0 1:-0.939714 2:-0.478 3:-1 4:-1 5:-1 6:-1 7:-1 8:-1 9:-1 10:-1 11:-1 12:-1 13:-1 14:-1 15:-0.357571 16:-1 17:-1 18:-1 19:-1 20:-1 21:-1 23:-1 24:-1 25:-1 26:-1 27:-1 30:-1 
0 0.6990304469123014 0.4607013435497206 6.724924547226021 0.2191930907279315 0.2166860389487601 0.3883478904059237 1:-0.979905 2:-0.0640001 3:-1 4:-1 5:-1 6:-1 7:-1 8:-1 9:-1 10:-1 11:-1 12:-1 13:-1 14:-1 15:-0.357571 16:-1 18:-1 19:-1 20:-1 21:-1 23:-1 24:-1 25:-1 26:-1 27:-1 30:-1 
0 0 0 0 0 3.074875755303214 0 1:-0.939714 2:-0.478 3:-1 4:-1 5:-1 6:-1 7:-1 8:-1 9:-1 10:-1 11:-1 12:-1 13:-1 14:-1 15:-0.357571 16:-1 17:-1 18:-1 19:-1 20:-1 21:-1 23:-1 24:-1 25:-1 26:-1 27:-1 30:-1 
0 0 0.5132205522585753 0 0.4505803030485613 0.1076328564605854 0.2575261813412288 1:-1 2:-0.975984 3:-1 4:-1 5:-1 6:-1 7:-1 8:-1 9:-1 10:-1 11:-1 12:-1 13:-1 14:-1 15:1 16:-1 17:-1 18:-1 19:-1 20:-1 21:-1 23:-1 24:-1 25:-1 26:-1 27:-1 30:-0.5 
0 5.218745801852717 0 0 2.589981234246811 0.3655595319348093 0.5560680981478364 1:-0.688524 2:-0.748 3:-1 4:-1 5:-0.960784 6:-1 7:-1 8:-1 9:-1 10:-1 11:-1 12:-0.955056 13:-1 14:-1 15:-0.946464 16:-1 17:-1 18:-1 19:-1 20:-1 21:-1 23:-1 24:-1 25:-1 26:-1 27:-1 30:-1 
1.567007531191763 0 0 0 0 0.02004116659848943 0.09762005989100489 1:-0.889476 2:-0.946 3:-1 4:-1 5:-1 6:-1 7:-1 8:-1 9:-1 10:-1 11:-1 12:-1 13:-1 14:-1 15:-0.464643 16:-0.989247 17:-1 18:-1 19:-1 20:-1 21:-1 23:-1 24:-1 25:-1 26:-1 27:-1 30:-0.5 
-1.174636288552196 2.42291749476626 0.09231968355184571 0.8306964644531852 1.187383344797643 0.7832996482784267 0.9782924141352011 1:-0.89019 2:-1 3:-1 4:-1 5:-1 6:-1 7:1 8:-1 9:-1 10:-1 11:-1 12:-1 13:-1 14:-1 15:-1 16:-1 17:-1 18:-1 19:-1 20:-1 21:-1 23:-1 24:-1 25:-1 26:-1 27:-1 30:-1 
-32 32 0 5.996428337985366 0 1.824773429126882 0 1:-0.76902 2:-0.948276 3:-1 4:-1 5:-1 6:-1 7:-1 8:-1 9:-1 10:-1 11:-1 12:-1 13:-1 14:-1 15:-1 16:-0.978495 17:-1 18:-1 19:-1 20:-1 21:-1 23:-1 24:-1 25:-1 26:-1 27:-1 30:-1 
-0 0 32 0 0 0 0 1:-1 2:-1 3:-1 4:-1 5:-1 6:-1 7:-0.497253 8:-1 9:-1 10:-1 11:-1 12:-1 13:-1 14:-1 15:-1 16:-1 17:-1 18:-1 19:-1 20:-1 21:-1 23:-1 24:-1 25:-1 26:-1 27:-1 30:-1 
-0 0 24.49109227078053 0 0 0 0 1:-1 2:-1 3:-1 4:-1 5:-1 6:-1 7:0.262069 8:-1 9:-1 10:-1 11:-1 12:-1 13:-1 14:-1 15:-1 16:-1 17:-1 18:-1 19:-1 20:-1 21:-1 23:-1 24:-1 25:-1 26:-1 27:-1 30:-1 
-0 0 12.96694161046632 0 0 0 0 1:-0.945244 2:-1 3:-1 4:-1 5:-1 6:-1 7:-0.501362 8:-1 9:-1 10:-1 11:-1 12:-1 13:-1 14:-1 15:-1 16:-1 17:-1 18:-1 19:-1 20:-1 21:-1 23:-1 24:-1 25:-1 26:-1 27:-1 30:-1 
-0 0 32 0 0 0 0 1:-1 2:-1 3:-1 4:-1 5:-1 6:-1 7:-0.560095 8:-1 9:-1 10:-1 11:-1 12:-1 13:-1 14:-1 15:-1 16:-1 17:-1 18:-1 19:-1 20:-1 21:-1 23:-1 24:-1 25:-1 26:-1 27:-1 30:-1 
-3.778371947341599 0.7614788997725206 0.4502030571987337 0.3401792690183562 2.105549469736145 0.2048624874040764 0.4316896361674684 1:-0.728714 2:-1 3:-1 4:-1 5:-1 6:-1 7:-1 8:-1 9:-1 10:-1 11:-1 12:-0.52809 13:-1 14:-1 15:-1 16:-0.978495 17:-1 18:-1 19:-1 20:-1 21:-1 23:-1 24:-1 25:-1 26:-1 27:-0.977528 30:-1 
-4.898008162049699 32 0 1.417937570152747 2.065207022366203 0 0.6111498992682103 1:-0.475776 2:-1 3:-1 4:-1 5:-1 6:-1 7:-1 8:-1 9:-1 10:-1 11:-1 12:-1 13:-1 14:-1 15:-1 16:-0.967742 17:-1 18:-1 19:-1 20:-1 21:-1 23:-1 24:-1 25:-1 26:-1 27:-1 30:-1 
-0 0 32 0 0 0 0 1:-1 2:-1 3:-1 4:-1 5:-1 6:-1 7:-0.570422 8:-1 9:-1 10:-1 11:-1 12:-1 13:-1 14:-1 15:-1 16:-1 17:-1 18:-1 19:-1 20:-1 21:-1 23:-1 24:-1 25:-1 26:-1 27:-1 30:-1 
-0 0 32 0 0 0 0 1:-1 2:-1 3:-1 4:-1 5:-1 6:-1 7:-0.580275 8:-1 9:-1 10:-1 11:-1 12:-1 13:-1 14:-1 15:-1 16:-1 17:-1 18:-1 19:-1 20:-1 21:-1 23:-1 24:-1 25:-1 26:-1 27:-1 30:-1 
-0 27.19485051784919 0 0 0 0 0 1:-0.621394 2:-1 3:-1 4:-1 5:-1 6:-1 7:-1 8:-1 9:-1 10:-1 11:-1 12:-1 13:-1 14:-1 15:-1 16:-0.989247 17:-1 18:-1 19:-1 20:-1 21:-1 23:-1 24:-1 25:-1 26:-1 27:-1 30:-1 
-0 0 5.252998399314921 0 0 0 0 1:-1 2:-1 3:-1 4:-1 5:-1 6:-1 7:-0.620332 8:-1 9:-1 10:-1 11:-1 12:-1 13:-1 14:-1 15:-1 16:-1 17:-1 18:-1 19:-1 20:-1 21:-1 23:-1 24:-1 25:-1 26:-1 27:-1 30:-1 
-0 0 32 0 0 0 0 1:-1 2:-1 3:-1 4:-1 5:-1 6:-1 7:0.244898 8:-1 9:-1 10:-1 11:-1 12:-1 13:-1 14:-1 15:-1 16:-1 17:-1 18:-1 19:-1 20:-1 21:-1 23:-1 24:-1 25:-1 26:-1 27:-1 30:-1 
-0 13.62240824496024 0 0 0 0 0 1:-1 2:-1 3:-1 4:-1 5:-1 6:-1 7:-1 8:-1 9:-1 10:-1 11:-1 12:-1 13:-1 14:-1 15:-1 16:-1 17:-1 18:-1 19:-1 20:-1 21:-1 23:-1 24:-1 25:-1 26:-1 27:-1 30:-1 
-28.60252526780604 21.06604147356022 0 0 3.540497517141582 1.679770197685412 1.681876758527674 1:-1 2:-1 3:-1 4:-1 5:-1 6:-1 7:-1 8:-1 9:-1 10:-1 11:-1 12:-1 13:-1 14:-1 15:-1 16:-1 17:-1 18:-1 19:-1 20:-1 21:-1 23:-1 24:-1 25:-1 26:-1 27:-1 30:-1 
-0 -0 0.8922317361528208 0.6002065842272334 0.3891631991340793 0.4281374965738465 0.5933276800232359 1:0.185619 2:-0.982 3:-1 4:-1 5:-1 6:-1 7:-1 8:-1 9:-1 10:-1 11:-1 12:0.932584 13:-1 14:-1 15:-1 16:-0.978495 17:-1 18:-1 19:-1 20:-1 21:-1 23:-1 24:-1 25:-1 26:-1 27:-0.977528 30:-1 
-32 -5.032222897549605 0 0 0 0 0 1:-0.749332 2:-0.700624 3:-1 4:-0.912682 5:-1 6:-1 7:-1 8:-1 9:-1 10:-1 11:-1 12:-1 13:-1 14:-1 15:-1 16:-0.978495 17:-1 18:-1 19:-1 20:-1 21:-1 23:-1 24:-1 25:-1 26:-1 27:-1 30:-1 
-32 -32 0 0 2.112961316310901 0 0 1:-0.669214 2:-1 3:-1 4:-1 5:-1 6:-1 7:-1 8:-1 9:-1 10:-1 11:-1 12:-1 13:-1 14:-1 15:-1 16:-1 17:-1 18:-1 19:-1 20:-1 21:-1 23:-1 24:-1 25:-1 26:-1 27:-1 30:-1 
-32 -32 0.9859823099954211 0 0 3.471528444071868 0 1:-0.937005 2:-0.774295 3:-1 4:-1 5:-1 6:-1 7:-1 8:-1 9:-1 10:-1 11:-1 12:-1 13:-1 14:-1 15:-1 16:-1 17:-1 18:-1 19:-1 20:-1 21:-1 23:-1 24:-1 25:-1 26:-1 27:-1 30:-1 
-25.89666614763713 -32 32 9.835795277365241 3.979523812056149 0 1.884716752442042 1:-1 2:-1 3:-1 4:-1 5:-1 6:-1 7:-1 8:-1 9:-1 10:-1 11:-1 12:-1 13:-1 14:-1 15:-1 16:-1 17:-1 18:-1 19:-1 20:-1 21:-1 23:-1 24:-1 25:-1 26:-1 27:-1 30:-1 
-6.684637931010453 -28.03547373335883 0 0 0.1288979378295582 0 0 1:-0.126294 2:-1 3:-1 4:-1 5:-1 6:-1 7:-1 8:-1 9:-1 10:-1 11:-1 12:-1 13:-1 14:-1 15:-1 16:-0.956989 17:-1 18:-1 19:-1 20:-1 21:-1 23:-1 24:-1 25:-1 26:-1 27:-1 30:-1 
-19.98635973925728 -0 0 32 0 0 0 1:-0.681028 2:-0.238095 3:-1 4:-1 5:-1 6:-1 7:-1 8:-1 9:-1 10:-1 11:-1 12:-1 13:-1 14:-1 15:-1 16:-1 17:-0.5 18:-1 19:-1 20:-1 21:-1 23:-1 24:-1 25:-1 26:-1 27:-1 30:-1 
-0 -0 0.4400402036242637 4.084031610209093 0.5467613203246678 1.031076199038151 0.53566272776416 1:-0.66693 2:-0.20442 3:-1 4:-1 5:-1 6:-1 7:-1 8:-1 9:-1 10:-1 11:-1 12:-1 13:-1 14:-1 15:-1 16:-1 17:-0.5 18:-1 19:-1 20:-1 21:-1 23:-1 24:-1 25:-1 26:-1 27:-1 30:-1 
-0 -0 0.8364272813354861 0.03005644303574798 0.7844399412438106 0.3238636227827794 0.5779578781572012 1:1 2:-1 3:-1 4:-1 5:-1 6:-1 7:-1 8:-1 9:-1 10:-1 11:-1 12:-1 13:-1 14:-1 15:-1 16:-0.935484 17:-1 18:-1 19:-1 20:-1 21:-1 23:-1 24:-1 25:-1 26:-1 27:-1 30:-1 
-2.540442230532226 -0 0.05079735139914067 0 0.7685714804901517 0 0.03531619500188085 1:-0.303055 2:-0.791907 3:-1 4:-1 5:-1 6:-1 7:-1 8:-1 9:-1 10:-1 11:-1 12:0.558745 13:-1 14:-1 15:-1 16:-0.956989 17:-1 18:-1 19:-1 20:-1 21:-1 23:-1 24:-1 25:-1 26:-1 27:-0.955056 30:-1 
-0 -0 0.46294418038166 0.3384636950839079 0.3719697560142176 0.186021447479907 0.3054078705319785 1:-1 2:-1 3:-1 4:0.217391 5:-1 6:-1 7:-1 8:-1 9:-1 10:-1 11:-1 12:-1 13:-1 14:-1 15:-1 16:-1 17:-1 18:-1 20:-1 21:-1 23:-1 24:-1 25:-1 26:-1 27:-1 30:-1 
-0 -0 0.8743418126756253 0.7169754346392948 0.7847620183729797 0.4362124450455099 0.5852246397472169 1:-1 2:-1 3:-1 4:1 5:-1 6:-1 7:-1 8:-1 9:-1 10:-1 11:-1 12:-1 13:-1 14:-1 15:-1 16:-1 17:-1 18:-1 19:1 20:-1 21:-1 23:-1 24:-1 25:-1 26:-1 27:-1 30:-1 
-0 -32 -0 0 0 0 0 1:-1 2:-1 3:-1 4:-1 5:-1 6:-1 7:0.396947 8:-1 9:-1 10:-1 11:-1 12:-1 13:-1 14:-1 15:-1 16:-1 17:-1 18:-1 19:-1 20:-1 21:-1 23:-1 24:-1 25:-1 26:-1 27:-1 30:-1 
-0 -0 -0 0 1.900533542601623 0 0 1:-0.95981 2:-0.982 3:-1 4:-1 5:-0.137255 6:-1 7:-1 8:-1 9:-0.441333 10:-1 11:-1 12:-1 13:-1 14:-1 15:-0.464643 16:-1 17:-1 18:-1 19:-1 20:1 21:-1 23:-1 24:-1 25:-1 26:-1 27:-1 30:-1 
-0.3275149334817925 -0 -0.1341300263217969 0.1561472908248865 2.439794769698979 0.1097671071079793 0.1697805734131263 1:-1 2:-0.982 3:-1 4:-1 5:-0.0196078 6:-1 7:-1 8:-1 9:-1 10:-1 11:-1 12:-1 13:-1 14:-1 15:-1 16:-1 17:-1 18:-1 19:-1 20:1 21:-1 23:-1 24:-1 25:-1 26:-1 27:-1 30:-1 
-0 -0 -0 0 0 0 0.07507955713246149 1:-0.976524 2:-1 3:-1 4:-1 5:-1 6:-0.569601 7:0.496496 8:-1 9:-1 10:-1 11:-1 12:-1 13:-1 14:-1 15:-1 16:-1 17:-1 18:-1 19:-1 20:-1 21:-1 23:-1 24:-1 25:-1 26:-1 27:-1 30:-1 
-0 -0 -0 0 0.2385263791807558 0.06838601036560002 0.1676101328614394 1:-0.919619 2:-1 3:-1 4:-1 5:-0.882353 6:0.105263 7:-0.0849999 8:-1 9:-1 10:-1 11:-1 12:-1 13:-1 14:-1 15:-1 16:-1 17:-1 18:-1 19:-1 20:-1 21:-1 23:-1 24:-1 25:-1 26:-1 27:-1 30:-1 
-0 -0 -0 0.01211640409009047 0.3512672844800224 0.1226300830604107 0.2477516559454601 1:-0.949762 2:-0.964 3:-1 4:-1 5:0.0980392 6:-1 7:0.0980002 8:-1 9:-1 10:-1 11:-0.955556 12:-1 13:-1 14:-1 15:-1 16:-1 17:-1 18:-1 19:-1 20:-1 21:-1 23:-1 24:-1 25:-1 26:-1 27:-1 30:-1 
-0.7259196233099358 -0 -0.6868571831705049 0.3054038296855841 0.602063136707397 0.2872845944010555 0.3958368920100032 1:-1 2:-1 3:-1 4:-1 5:-0.957398 6:0.772492 7:-1 8:-1 9:-1 10:-1 11:-1 12:-1 13:-1 14:-1 15:-1 16:-1 17:-1 18:-1 19:-1 20:-1 21:1 23:-1 24:-1 25:-1 26:-1 27:-1 30:-1 
-0 -32 -0 0 0 0 0 1:-1 2:-1 3:-1 4:-1 5:-1 6:-0.894737 7:-0.3595 8:-1 9:-1 10:-1 11:-1 12:-1 13:-1 14:-1 15:-1 16:-1 17:-1 18:-1 19:-1 20:-1 21:-1 23:-1 24:-1 25:-1 26:-1 27:-1 30:-1 
-0.6959365479050388 -0.3294020672986277 -0.6638570758161632 0.3326956674795223 0.5238962661765705 0.3277633815589369 0.4511752742227738 1:-0.892997 2:-0.961661 3:-1 4:-1 5:0.503477 6:-1 7:-1 8:-1 9:0.487398 10:-1 11:-1 12:-1 13:-1 14:-1 15:0.710406 16:-1 17:-1 18:-1 19:-1 20:1 21:-1 23:-1 24:-1 25:-1 26:-1 27:-1 30:-1 
-1.188537343883083 -5.316474856559324 -1.241303640206818 0 0 0 0 1:-0.985533 2:-1 3:-1 4:-1 5:-0.43534 6:-1 7:-0.736502 8:-1 9:-1 10:-1 11:-1 12:-0.967643 13:-1 14:-1 15:-1 16:-1 17:-1 18:-1 19:-1 20:-1 21:-1 23:-1 24:-1 25:-1 26:-1 27:-1 30:-1 
-0.1815796291093934 -0.06164949200577512 -0.1466465293571637 0.07623495824111769 0.05275266485670195 0.04605922618211266 0.08642040697697594 1:-0.889476 2:-0.982 3:-1 4:-1 5:0.0588235 6:-1 7:-1 8:-1 9:-0.301666 10:-1 11:-1 12:-1 13:-1 14:-1 15:0.766679 16:-1 17:-1 18:-1 19:-1 20:1 21:-1 23:-1 24:-1 25:-1 26:-1 27:-1 30:-0.5 
-0 -32 -0 0 0 0 0 1:-1 2:-1 3:-1 4:-1 5:-1 6:-0.894737 7:-0.3595 8:-1 9:-1 10:-1 11:-1 12:-1 13:-1 14:-1 15:-1 16:-1 17:-1 18:-1 19:-1 20:-1 21:-1 23:-1 24:-1 25:-1 26:-1 27:-1 30:-1 
-0.5270601748029796 -0.1799818620288428 -0.4890825935366921 0.2781614849465346 0 0.2695684823357408 0.3763251447876991 1:-0.989952 2:-0.982 3:-1 4:-1 5:1 6:-1 7:-1 8:-1 9:-0.860333 10:-1 11:-1 12:-1 13:-1 14:-1 15:-1 16:-1 17:-1 18:-1 19:-1 20:1 21:-1 23:-1 24:-1 25:-1 26:-1 27:-1 30:-1 
-0.07679340842743915 -0.04451302720231312 -0.2824948698367836 0 2.545059166931046 0 0 1:-1 2:-0.982 3:-1 4:-0.9965 5:-0.0588235 6:-1 7:-1 8:-1 9:-1 10:-1 11:-1 12:-1 13:-1 14:-1 15:-0.946464 16:-1 17:-1 18:-1 19:-1 20:1 21:-1 23:-1 24:-1 25:-1 26:-1 27:-1 30:-1 
-32 -32 -32 5.509908607284975 5.058966743308438 3.046083896410296 1.98770830970975 1:-1 2:-1 3:-1 4:-1 5:-1 6:-1 7:-0.817 8:-1 9:-1 10:-1 11:-1 12:-1 13:-1 14:-1 15:-1 16:-1 17:-1 18:-1 19:-1 20:-1 21:-1 23:-1 24:-1 25:-1 26:-1 27:-1 30:-1 
-0.5565957243987331 -0 -0.5111201464196522 0.2927369406117057 0.5915445215582587 0.2820613570758037 0.3899399492818175 1:-0.969857 2:-1 3:-1 4:-1 5:-0.882353 6:1 7:0.1895 8:-1 9:-1 10:-1 11:-1 12:-1 13:-1 14:-1 15:-1 16:-1 17:-1 18:-1 19:-1 20:-1 21:1 23:-1 24:-1 25:-1 26:-1 27:-1 30:-1 
-0 -5.117264269752479 -0 0 0 0 0 1:-0.979905 2:-1 3:-1 4:-1 5:-0.843137 6:-0.894737 7:-0.1765 8:-1 9:-1 10:-1 11:-0.977778 12:-1 13:-1 14:-1 15:-1 16:-1 17:-1 18:-1 19:-1 20:-1 21:-1 23:-1 24:-1 25:-1 26:-1 27:-1 30:-1 
-0 -32 -0 0 0 0 0 1:-1 2:-1 3:-1 4:-1 5:-1 6:-0.894737 7:-0.451 8:-1 9:-1 10:-1 11:-1 12:-1 13:-1 14:-1 15:-1 16:-1 17:-1 18:-1 19:-1 20:-1 21:-1 23:-1 24:-1 25:-1 26:-1 27:-1 30:-1 
-0 -32 -0 0 0 0 0 1:-1 2:-1 3:-1 4:-1 5:-1 6:-0.894737 7:-0.3595 8:-1 9:-1 10:-1 11:-1 12:-1 13:-1 14:-1 15:-1 16:-1 17:-1 18:-1 19:-1 20:-1 21:-1 23:-1 24:-1 25:-1 26:-1 27:-1 30:-1 
-0.4935119502786745 -0.204269446464985 -0.3872728108988431 0.195239034401418 0 0.2634617618631878 0.2933843786962612 1:-1 2:-0.982 3:-1 4:-1 5:-0.0980392 6:-1 7:-1 8:-1 9:-1 10:-1 11:-1 12:-1 13:-1 14:-1 15:0.231321 16:-1 17:-1 18:-1 19:-1 20:1 21:-1 23:-1 24:-1 25:-1 26:-1 27:-1 30:-0.5 
-0 -0 -23.07354513284166 -0 0 0 0 1:-0.964869 2:0.006993 3:-1 4:-1 5:-1 6:-1 7:-1 8:-1 9:-1 10:-1 11:-1 12:-1 13:-1 14:-1 15:-1 16:-1 17:-0.5 18:-1 19:-1 20:-1 21:-1 23:-1 24:-1 25:-1 26:-1 27:-1 30:-1 
-5.173427917893258 -6.480044869410242 -17.66093946401339 -3.366619019491027 3.248296194593745 1.465563013720997 1.536703347661262 1:-0.659723 2:-0.932267 3:-1 4:-1 5:-1 6:-1 7:-1 8:-1 9:-1 10:-1 11:-1 12:-1 13:-1 14:-1 15:-1 16:-0.806452 17:-0.5 18:-1 19:-1 20:-1 21:-1 23:-1 24:-1 25:-1 26:-1 27:-1 30:-1 
-0 -0 -6.871044447705473 -0 0 0 0 1:-1 2:-0.384615 3:-1 4:-1 5:-1 6:-1 7:-1 8:-1 9:-1 10:-1 11:-1 12:-1 13:-1 14:-1 15:-1 16:-1 17:-0.5 18:-1 19:-1 20:-1 21:-1 23:-1 24:-1 25:-1 26:-1 27:-1 30:-1 
-19.7682237857629 -1.375780495130196 -0 -2.814886481049549 0.7071986980052438 1.298193199797779 0.6181797127169802 1:-1 2:-0.634518 3:-1 4:-1 5:-1 6:-1 7:-1 8:-1 9:-1 10:-1 11:-1 12:-1 13:-1 14:-1 15:-1 16:-1 17:-0.5 18:-1 19:-1 20:-1 21:-1 23:-1 24:-1 25:-1 26:-1 27:-1 30:-1 
-0 -0.7294162770692165 -0 -0.9771387170252568 1.14181630424819 0 0.9625868668945783 1:-1 2:1 3:-1 4:-1 5:-1 6:-1 7:-1 8:-1 9:-1 10:-1 11:-1 12:-1 13:-1 14:-1 15:-1 16:-1 17:-0.5 18:-1 19:-1 20:-1 21:-1 23:-1 24:-1 25:-1 26:-1 27:-1 30:-1 
-25.73802490549187 -0 -0 -0 0 2.35918659299437 0.0161759631984472 1:-1 2:0.0996782 3:-1 4:-1 5:-1 6:-1 7:-1 8:-1 9:-1 10:-1 11:-1 12:-1 13:-1 14:-1 15:-0.655719 16:-1 17:-0.5 18:-1 19:-1 20:-1 21:-1 23:-1 24:-1 25:-1 26:-1 27:-1 30:-1 
-0 -0 -0 -0 -0 0.06252133765105304 0.2058905949725897 1:-0.54068 2:-1 3:-1 4:-1 5:-1 6:-1 7:-1 8:-1 9:0.596193 10:0.428571 11:-0.746032 12:-1 13:-1 14:-1 15:-1 16:-0.978495 17:-1 18:-1 19:-1 20:-1 21:-1 23:-1 24:-1 25:-0.979167 26:-1 27:-1 30:-1 
-0 -0 -0 -0.4038236802949598 -0 0 0 1:-0.685753 2:-1 3:-1 4:-1 5:0.291052 6:-1 7:-1 8:-1 9:-1 10:-0.314129 11:-1 12:-0.297175 13:-1 14:-1 15:-1 16:-0.978495 17:-1 18:-1 19:-1 20:1 21:-1 23:-1 24:-1 25:-0.979167 26:-1 27:-0.977528 30:-1 
-0.2205452657170673 -0.1510344172130944 -0.231187639902451 -1.45738336110326 -0.1143276439476714 0.1136413972584009 0.1476041451668317 1:-0.598095 2:-1 3:-1 4:-1 5:0.490196 6:-1 7:-1 8:-1 9:-0.860333 10:-0.958333 11:-1 12:-0.168539 13:-1 14:-1 15:-1 16:-0.978495 17:-1 18:-1 19:-1 20:1 21:-1 23:-1 24:-1 25:-1 26:-1 27:-0.977528 30:-1 
-6.30940583418626 -6.885365675763723 -6.667889611298858 -5.001986858119846 -3.376166656432722 2.078254618149948 1.475144562618971 1:-0.805608 2:-1 3:-1 4:-1 5:-1 6:-1 7:-1 8:-1 9:-0.662233 10:-0.596937 11:-0.838775 12:-0.891309 13:-1 14:-1 15:-1 16:-0.978495 17:-1 18:-1 19:-1 20:-1 21:-1 23:-1 24:-1 25:-0.979167 26:-1 27:-1 30:-1 
-1.051859064927799 -0.648523447154576 -1.033354736639349 -1.080621284102255 -0.5608574237223646 0.54324440796586 0.6997084073279192 1:-0.0655715 2:-1 3:-1 4:-0.9965 5:-1 6:-1 7:-1 8:1 9:-0.860333 10:1 11:1 12:1 13:-1 14:-1 15:-1 16:1 17:-1 18:-1 19:-0.75 20:-1 21:-1 23:1 24:1 25:1 26:1 27:1 30:-1 
-0.7923869320636825 -0.590619283301809 -0.7933126366605336 -3.74690993130586 -0.4273302442323756 0.3705791942685681 0.4476417321586933 1:-0.698571 2:-1 3:-1 4:-1 5:-0.529412 6:-1 7:-1 8:-1 9:-0.860333 10:-0.958333 11:-1 12:-0.752809 13:-1 14:-1 15:-1 16:-0.978495 17:-1 18:-1 19:-1 20:1 21:-1 23:-1 24:-1 25:-1 26:-1 27:-0.977528 30:-1 
-0.2125948947884725 -0 -0.1521216327716722 -0.3165106110890515 -0.1288744362915079 0.2011130907831114 0.2898562633945445 1:-0.47244 2:-1 3:-1 4:-1 5:-0.438439 6:-1 7:-1 8:-1 9:1 10:-0.502785 11:-1 12:-0.785471 13:-1 14:-1 15:-1 16:-0.978495 17:-1 18:-1 19:-1 20:-1 21:-1 23:-1 24:-1 25:-0.979167 26:-1 27:-1 30:-1 
-0.3516973078430717 -0.3089969014257641 -0.4274489169627372 -0.399162176328891 -0.1802551028689084 0.1375261460886736 0.2100237247693822 1:-0.658381 2:-1 3:-1 4:-1 5:-0.137255 6:-1 7:-1 8:-1 9:-0.0223327 10:-1 11:-1 12:-0.617978 13:-1 14:-1 15:-1 16:-1 17:-1 18:-1 19:-1 20:-1 21:-1 23:-1 24:-1 25:-1 26:-1 27:-1 30:-1 
-0.5781656542714638 -0.3140976291826061 -0.5617356075409142 -0 -0.3094996893516286 0.3137318131338502 0.4141057659183736 1:-0.557905 2:-1 3:-1 4:-1 5:0.568627 6:-1 7:-1 8:-1 9:-0.860333 10:-0.166667 11:-1 12:-0.123596 13:-1 14:-1 15:-1 16:-0.978495 17:-1 18:-1 19:-1 20:1 21:-1 23:-1 24:-1 25:-0.979167 26:-1 27:-0.977528 30:-1 
-0 -0 -0 -1.898006573155669 -0 0 0 1:-0.74881 2:-1 3:-1 4:-1 5:-0.372549 6:-1 7:-1 8:-1 9:-0.581 10:-0.854167 11:-1 12:-0.707865 13:-1 14:-1 15:-1 16:-0.978495 17:-1 18:-1 19:-1 20:1 21:-1 23:-1 24:-1 25:-1 26:-1 27:-0.988764 30:-1 
-0 -0 -0 -0 -0 0 0.1463274158344101 1:-0.511574 2:-1 3:-1 4:-1 5:-1 6:-1 7:-1 8:-1 9:-0.515046 10:0.157407 11:-0.151235 12:-0.219725 13:-1 14:-1 15:-1 16:-0.978495 17:-1 18:-1 19:-1 20:-1 21:-1 23:-1 24:-1 25:-0.979167 26:-1 27:-1 30:-1 
-0 -2.544605594705275 -2.675813020876515 -2.285700956026189 -0 -1.514431251515487 0.7835398510551608 1:-0.969857 2:-0.658 3:-0.269231 4:-1 5:-1 6:-1 7:-1 8:-1 9:-1 10:-1 11:-1 12:-1 13:-1 14:-1 15:-1 16:-1 17:-1 18:-1 19:-1 20:-1 21:-1 23:-1 24:-1 25:-1 26:-1 27:-1 30:-1 
-0 -0 -0.1839605204223267 -0 -0.5694872958817426 -0 0 1:-1 2:-0.583673 3:-0.162742 4:-1 5:-1 6:-1 7:-1 8:-1 9:-1 10:-1 11:-1 12:-1 13:-1 14:-1 15:-1 16:-1 17:-0.5 18:-0.666667 19:-1 20:-1 21:-1 23:-1 24:-1 25:-1 26:-1 27:-1 30:-1 
-0 -0 -0 -0 -4.148833623862309 -0 0 1:-0.919619 2:-0.46 3:-0.423077 4:-1 5:-1 6:-1 7:-1 8:-1 9:-1 10:-1 11:-1 12:-1 13:-1 14:-1 15:-0.571714 16:-1 17:-0.75 18:-1 19:-1 20:-1 21:-1 23:-1 24:-1 25:-1 26:-1 27:-1 30:-1 
-9.864074365017945 -1.523629277172331 -2.333167527197748 -1.650925110054356 -0 -1.350887882141822 1.313054800995865 1:-0.919619 2:-0.496 3:-0.538462 4:-1 5:-1 6:-1 7:-1 8:-1 9:-1 10:-1 11:-1 12:-1 13:-1 14:-1 15:-0.357571 16:-1 17:-1 18:-1 19:-1 20:-1 21:-1 23:-1 24:-1 25:-1 26:-1 27:-1 30:-1 
-0.7388841309963864 -0.4244708906171918 -0.6838985864954732 -0.8864398342805785 -0.4046218867690954 -0.9552928716421561 0.8421892733817611 1:-0.989952 2:-0.0640001 3:1 4:-1 5:-1 6:-1 7:-1 8:-1 9:-1 10:-1 11:-1 12:-1 13:-1 14:-1 15:-1 16:-1 17:-0.5 18:-0.333333 19:-1 20:-1 21:-1 23:-1 24:-1 25:-1 26:-1 27:-1 30:-1 
-1.097988389024225 -0.7081471644300952 -1.046173747921994 -1.159646894439999 -0.6755332889863919 -1.094876258893738 -0.672860241520305 1:-0.989952 2:-0.676 3:-1 4:-0.9405 5:-1 6:-1 7:-1 8:1 9:-1 10:-1 11:-0.955556 12:-1 13:0.478261 14:0.391304 15:-1 16:-1 17:-1 18:-1 19:-1 20:-1 21:-1 23:-1 24:-1 25:-1 26:-1 27:-1 30:-1 
-2.768814175608603 -2.504077217187143 -2.654803880806921 -2.542920222966606 -1.94991661240563 -2.022381187659138 -1.743170190531447 1:-0.919619 2:-0.91 3:-1 4:-0.972 5:-1 6:-1 7:-1 8:-1 9:-1 10:-1 11:-1 12:-1 13:-0.304348 14:-0.391304 15:-0.785857 16:-1 17:-1 18:-1 19:-1 20:-1 21:-1 23:-1 24:-1 25:-1 26:-1 27:-1 30:-1 
-0.8580906842314606 -0.4907843264813155 -0.8166361149388003 -0.9384451576311639 -0.5081959890792466 -0.9190451656088392 -0.5227534933810345 1:-0.989952 2:-0.55 3:-1 4:-0.916 5:-1 6:-1 7:-1 8:-1 9:-1 10:-1 11:-1 12:-1 13:1 14:1 15:-1 16:-1 17:-1 18:-1 19:-1 20:-1 21:-1 23:-1 24:-1 25:-1 26:-1 27:-1 30:-1 
